{
  "weights1": [
    [
      0.009208952475527398,
      -0.030804131020993428,
      0.004781567381503374,
      0.032136150086839135,
      -0.04378970429547338,
      -0.010889070912554883,
      0.013747749434482617,
      -0.03230233694751429
    ],
    [
      -4.342657208254205,
      -0.06327879521372949,
      1.5791217070904138,
      -4.708497595095857,
      -1.2324331224589764,
      -1.687484770591589,
      -2.1514395448479546,
      2.3593933660025552
    ],
    [
      -0.03683226404396683,
      -0.011983166856525654,
      0.012708008878820008,
      -0.0019596932330638965,
      -0.03430173325596347,
      0.027926340107562998,
      -0.03339855890819752,
      -0.025646931655189567
    ],
    [
      0.011330579969732657,
      0.002286283658613675,
      0.029221973665182113,
      -0.030937248475596604,
      -0.04049043793451293,
      -0.009801157634413539,
      -0.042254633577858594,
      -0.04258437865511691
    ],
    [
      0.7277463030202224,
      -1.7990003770994916,
      0.8070349840646864,
      1.6225506281839794,
      0.9166555450332295,
      -1.1041241524030883,
      -0.007546803747198949,
      -0.33864104564654124
    ],
    [
      -1.6229207544392814,
      -3.36181314518619,
      0.6808360504362453,
      0.7833086769572152,
      -3.41447443412627,
      -1.9043067451877687,
      -0.9500928844885991,
      0.647965571936563
    ],
    [
      -0.012302101154155715,
      -0.004647015097438913,
      0.024407426904469537,
      -0.012385766341256241,
      -0.03309112161335042,
      0.03353066833623742,
      0.004282485283278756,
      -0.035806150216089856
    ],
    [
      2.866351166628102,
      1.3418564886089215,
      2.2809533392772683,
      0.4890434387657752,
      1.607134187135566,
      0.8049981644789852,
      -0.687212025855883,
      3.5878351191488793
    ],
    [
      4.204962165720223,
      1.760168324577321,
      3.0420284505092847,
      2.1218142657244887,
      0.07947490197245681,
      0.2679510381861244,
      2.8655029530981757,
      5.238235578650235
    ],
    [
      -1.5332359439220042,
      0.42332923989934884,
      0.3069458762027461,
      -1.5969164175201562,
      0.3230623059693994,
      0.9487932262369169,
      -0.22217408657528384,
      1.1309114511699223
    ],
    [
      0.06831002541577091,
      -0.2325719390791502,
      0.08145587184322368,
      -0.229188867397412,
      0.00823080438522853,
      0.003441570692352461,
      -0.2629409569085259,
      0.09601787996341792
    ],
    [
      0.12015949277515911,
      0.061607788237649654,
      0.20363637509502555,
      0.08687330031871834,
      0.06180178776896728,
      0.013041346265435485,
      0.2750830685964985,
      -0.30521242862633785
    ]
  ],
  "biases1": [
    -0.003079910984184298,
    3.3602357975496995,
    -0.004313877741544516,
    0,
    -0.09989133279714728,
    5.293223839399862,
    -0.010428432964941597,
    -6.79717327171144,
    -10.158625981440135,
    -0.22938267630592687,
    0.009472324913278754,
    0.006740517003440791
  ],
  "weights2Cat": [
    [
      -0.025894838710457203,
      -0.22364578168202937,
      -0.050023322085898235,
      -0.03464113441140837,
      -0.08079546221132,
      -0.29502768632065984,
      -0.05002582995881351,
      -0.9534486762754621,
      -1.102629944290459,
      -0.27407033185985913,
      0.046787052559995074,
      -0.05520813052066711
    ],
    [
      -0.04359473146934144,
      -0.7125118946890451,
      0.03871014642162665,
      0.026213212886413186,
      1.2471948919659346,
      -4.415326724493708,
      0.043788836251489924,
      1.3023429728246165,
      2.1799943433834263,
      -1.4369776779196404,
      -0.028908549090375227,
      0.0825153906994037
    ],
    [
      -0.027352563981940744,
      -0.7378881452672679,
      0.04494460968724219,
      -0.04045369767247915,
      -0.9837446365611248,
      1.8770702156223202,
      -0.02786216559601256,
      0.5044929220112622,
      0.435464658218258,
      1.0495638357440475,
      -0.13630941880639047,
      -0.15523083493567244
    ],
    [
      -0.0459184297629785,
      1.6454491979015098,
      0.0011862006942110841,
      0.036746128018335926,
      -0.20860205110599733,
      2.77857049827643,
      -0.03753317055626004,
      -0.9577672625905441,
      -1.519550484253458,
      0.7648328376407524,
      0.13388065841959557,
      0.07984005864480663
    ]
  ],
  "biases2Cat": [
    -2.230500594028785,
    -4.607407115007629,
    2.4186148278794493,
    4.419292881157073
  ],
  "weights2Amt": [
    [
      -0.04484037091108139,
      -0.3975500370671656,
      0.0015443637223983052,
      -0.002290771879584952,
      0.018060843684658167,
      -0.21006203784816854,
      0.028891236266990247,
      0.27927667584716087,
      0.33105932173043323,
      -0.05183481594713646,
      -0.05666791990144984,
      0.02148272663630549
    ]
  ],
  "biases2Amt": [
    -1.9222022745810443
  ]
}